digraph Tree {
node [shape=box, style="filled, rounded", color="black", fontname=helvetica] ;
edge [fontname=helvetica] ;
0 [label="X[3] <= 114.5\ngini = 1.0\nsamples = 31647\nvalue = [2, 2, 3 ... 1, 1, 1]", fillcolor="#ffffff"] ;
1 [label="X[3] <= 112.5\ngini = 0.99\nsamples = 9219\nvalue = [2, 2, 3 ... 0, 0, 0]", fillcolor="#ffffff"] ;
0 -> 1 [labeldistance=2.5, labelangle=45, headlabel="True"] ;
2 [label="X[3] <= 111.5\ngini = 0.99\nsamples = 8978\nvalue = [2, 2, 3 ... 0, 0, 0]", fillcolor="#ffffff"] ;
1 -> 2 ;
3 [label="X[3] <= 110.5\ngini = 0.99\nsamples = 8858\nvalue = [2, 2, 3 ... 0, 0, 0]", fillcolor="#ffffff"] ;
2 -> 3 ;
4 [label="X[3] <= 102.5\ngini = 0.99\nsamples = 8741\nvalue = [2, 2, 3 ... 0, 0, 0]", fillcolor="#ffffff"] ;
3 -> 4 ;
5 [label="gini = 0.99\nsamples = 7826\nvalue = [2, 2, 3 ... 0, 0, 0]", fillcolor="#ffffff"] ;
4 -> 5 ;
6 [label="gini = 0.87\nsamples = 915\nvalue = [0, 0, 0 ... 0, 0, 0]", fillcolor="#fffffe"] ;
4 -> 6 ;
7 [label="gini = 0.0\nsamples = 117\nvalue = [0, 0, 0 ... 0, 0, 0]", fillcolor="#e5ce39"] ;
3 -> 7 ;
8 [label="gini = 0.0\nsamples = 120\nvalue = [0, 0, 0 ... 0, 0, 0]", fillcolor="#e5ce39"] ;
2 -> 8 ;
9 [label="X[3] <= 113.5\ngini = 0.5\nsamples = 241\nvalue = [0, 0, 0 ... 0, 0, 0]", fillcolor="#fffffd"] ;
1 -> 9 ;
10 [label="gini = 0.0\nsamples = 121\nvalue = [0, 0, 0 ... 0, 0, 0]", fillcolor="#e5ce39"] ;
9 -> 10 ;
11 [label="gini = 0.0\nsamples = 120\nvalue = [0, 0, 0 ... 0, 0, 0]", fillcolor="#e5d139"] ;
9 -> 11 ;
12 [label="X[3] <= 125.5\ngini = 1.0\nsamples = 22428\nvalue = [0, 0, 0 ... 1, 1, 1]", fillcolor="#ffffff"] ;
0 -> 12 [labeldistance=2.5, labelangle=-45, headlabel="False"] ;
13 [label="X[3] <= 123.5\ngini = 0.91\nsamples = 1248\nvalue = [0, 0, 0 ... 0, 0, 0]", fillcolor="#fffffd"] ;
12 -> 13 ;
14 [label="X[3] <= 122.5\ngini = 0.89\nsamples = 986\nvalue = [0, 0, 0 ... 0, 0, 0]", fillcolor="#fffffe"] ;
13 -> 14 ;
15 [label="X[3] <= 121.5\ngini = 0.87\nsamples = 866\nvalue = [0, 0, 0 ... 0, 0, 0]", fillcolor="#fffffe"] ;
14 -> 15 ;
16 [label="gini = 0.86\nsamples = 746\nvalue = [0, 0, 0 ... 0, 0, 0]", fillcolor="#fffefc"] ;
15 -> 16 ;
17 [label="gini = 0.0\nsamples = 120\nvalue = [0, 0, 0 ... 0, 0, 0]", fillcolor="#e5d739"] ;
15 -> 17 ;
18 [label="gini = 0.0\nsamples = 120\nvalue = [0, 0, 0 ... 0, 0, 0]", fillcolor="#e5d739"] ;
14 -> 18 ;
19 [label="X[3] <= 124.5\ngini = 0.5\nsamples = 262\nvalue = [0, 0, 0 ... 0, 0, 0]", fillcolor="#fcfbeb"] ;
13 -> 19 ;
20 [label="gini = 0.0\nsamples = 138\nvalue = [0, 0, 0 ... 0, 0, 0]", fillcolor="#e5d739"] ;
19 -> 20 ;
21 [label="gini = 0.0\nsamples = 124\nvalue = [0, 0, 0 ... 0, 0, 0]", fillcolor="#e5d739"] ;
19 -> 21 ;
22 [label="X[3] <= 126.5\ngini = 1.0\nsamples = 21180\nvalue = [0, 0, 0 ... 1, 1, 1]", fillcolor="#ffffff"] ;
12 -> 22 ;
23 [label="gini = 0.0\nsamples = 108\nvalue = [0, 0, 0 ... 0, 0, 0]", fillcolor="#e5da39"] ;
22 -> 23 ;
24 [label="X[3] <= 127.5\ngini = 1.0\nsamples = 21072\nvalue = [0, 0, 0 ... 1, 1, 1]", fillcolor="#ffffff"] ;
22 -> 24 ;
25 [label="gini = 0.0\nsamples = 106\nvalue = [0, 0, 0 ... 0, 0, 0]", fillcolor="#e5da39"] ;
24 -> 25 ;
26 [label="X[3] <= 136.5\ngini = 1.0\nsamples = 20966\nvalue = [0, 0, 0 ... 1, 1, 1]", fillcolor="#ffffff"] ;
24 -> 26 ;
27 [label="gini = 0.89\nsamples = 968\nvalue = [0, 0, 0 ... 0, 0, 0]", fillcolor="#fffffc"] ;
26 -> 27 ;
28 [label="gini = 1.0\nsamples = 19998\nvalue = [0, 0, 0 ... 1, 1, 1]", fillcolor="#ffffff"] ;
26 -> 28 ;
}